{
  "structure": [
    4,
    10,
    10,
    10,
    3
  ],
  "values": [
    [
      0.7,
      0.32,
      0.46999997,
      0.14
    ],
    [
      0.17593026,
      0.21750128,
      0.20869678,
      0.08690128,
      0.24431679,
      0.13662936,
      0.107938886,
      0.18943757,
      0.19107914,
      0.19788928
    ],
    [
      0.086268246,
      0.05787772,
      0.9459405,
      0.116055585,
      0.14310636,
      0.07171039,
      0.1525353,
      0.069776945,
      0.13829078,
      0.0902577
    ],
    [
      0.95441324,
      0.058033664,
      0.84608245,
      0.060572956,
      0.033039797,
      0.057718955,
      0.038721498,
      0.98279345,
      0.86300963,
      0.97454643
    ],
    [
      0.0016255049,
      0.9989262,
      0.00013205508
    ]
  ],
  "biases": [
    [
      0,
      0,
      0,
      0
    ],
    [
      -3.2488863,
      -2.4150462,
      -2.277903,
      -1.5725726,
      -1.965091,
      -4.4463634,
      -1.9705204,
      -1.6984848,
      -2.8488684,
      -2.6385672
    ],
    [
      -4.8386574,
      -5.8592873,
      -1.979479,
      -3.8869283,
      -3.068026,
      -5.3352056,
      -2.7398515,
      -5.3683486,
      -3.517425,
      -4.808074
    ],
    [
      3.9212315,
      1.6357253,
      2.2197933,
      1.5789728,
      2.2835193,
      1.6488174,
      2.1175878,
      5.2685103,
      2.6418254,
      4.5886865
    ],
    [
      -7.8035464,
      -4.064636,
      4.2299795
    ]
  ],
  "weights": [
    [
      [
        -4.844659,
        -4.606057,
        11.483523,
        8.377044
      ],
      [
        -2.9822955,
        -2.90085,
        7.152421,
        5.6362314
      ],
      [
        -1.4973931,
        -1.7645035,
        4.4352155,
        3.3814762
      ],
      [
        -0.45576662,
        -0.2724762,
        -0.6818608,
        -0.37714115
      ],
      [
        -2.7279272,
        -3.1491683,
        6.4859266,
        5.0349884
      ],
      [
        -6.693224,
        -6.103714,
        15.975525,
        12.378022
      ],
      [
        -0.834414,
        -0.83266145,
        1.2287871,
        0.9397837
      ],
      [
        -1.4201771,
        -1.531736,
        2.9805949,
        2.344577
      ],
      [
        -4.311846,
        -4.5229144,
        10.245375,
        7.544738
      ],
      [
        -4.2781816,
        -4.4564314,
        9.689499,
        7.898975
      ]
    ],
    [
      [
        2.2167335,
        1.4849564,
        0.75620013,
        -0.2606945,
        1.1953912,
        3.1264687,
        0.16132307,
        0.5477402,
        1.9508935,
        2.1087775
      ],
      [
        2.817275,
        1.6060051,
        0.93747854,
        -0.41149735,
        1.6351892,
        3.9579606,
        0.4391433,
        0.8597302,
        2.514449,
        2.1915073
      ],
      [
        3.211035,
        3.0613098,
        2.4833958,
        0.086347334,
        3.3020566,
        3.3110502,
        0.75294936,
        2.045533,
        3.3318417,
        3.6408072
      ],
      [
        1.7832923,
        0.9016866,
        0.41459647,
        -0.29781473,
        1.0735688,
        2.5354383,
        0.18013573,
        0.40311792,
        1.4411176,
        1.5475502
      ],
      [
        1.020065,
        1.004553,
        0.57348526,
        -0.38033777,
        0.64458454,
        1.8627185,
        -0.017103763,
        0.16100088,
        0.9530552,
        0.86402845
      ],
      [
        2.312344,
        1.6203965,
        0.8667458,
        -0.1290719,
        1.2078121,
        3.59339,
        0.46676198,
        0.7472597,
        2.2944067,
        2.1689007
      ],
      [
        0.8667499,
        0.5982332,
        0.46677783,
        -0.14254063,
        0.46715626,
        1.4877149,
        0.038790073,
        0.0796928,
        0.92051554,
        0.7317263
      ],
      [
        2.5790205,
        1.5645242,
        0.8732905,
        -0.3763965,
        1.1851369,
        3.6934662,
        0.38216105,
        0.8369479,
        2.092257,
        2.228169
      ],
      [
        1.5569777,
        0.8347816,
        0.7140162,
        -0.20313203,
        0.9977077,
        1.9549624,
        0.32158482,
        0.31369686,
        1.2308049,
        1.318193
      ],
      [
        2.2526095,
        1.1865046,
        0.9596654,
        0.03688771,
        1.2327299,
        3.14731,
        0.28228152,
        0.5851065,
        2.0723214,
        1.8761827
      ]
    ],
    [
      [
        -1.3704859,
        -1.8025515,
        0.13243341,
        -1.1476005,
        -0.7513357,
        -1.4026967,
        -0.5784814,
        -1.7441986,
        -0.721557,
        -1.4566437
      ],
      [
        -1.565179,
        -1.7122563,
        -3.5061572,
        -0.9767458,
        -0.7397367,
        -1.6577716,
        -0.72848636,
        -1.8810852,
        -0.97802067,
        -1.7306231
      ],
      [
        -0.8445467,
        -1.3968767,
        0.19037418,
        -0.56644326,
        -0.67690474,
        -0.9460736,
        -0.2933167,
        -1.1978096,
        -0.5948817,
        -1.1185563
      ],
      [
        -1.6844788,
        -1.5881388,
        -3.3098063,
        -1.0562296,
        -1.0104498,
        -1.4735259,
        -0.7366088,
        -1.6425343,
        -1.1695405,
        -2.1130702
      ],
      [
        -2.3747742,
        -1.9634634,
        -4.4154496,
        -1.3727505,
        -0.9835412,
        -1.8569212,
        -0.7942317,
        -2.1499798,
        -1.635005,
        -2.5947895
      ],
      [
        -1.7436916,
        -1.7140579,
        -3.4833024,
        -0.96517754,
        -0.81480116,
        -1.5592885,
        -0.8021301,
        -1.6709068,
        -0.9541112,
        -2.0561383
      ],
      [
        -1.8920532,
        -1.8037455,
        -4.1671124,
        -1.4812748,
        -0.8541227,
        -1.9756154,
        -0.9223708,
        -2.1375005,
        -1.253698,
        -2.448139
      ],
      [
        -1.8338789,
        -2.0832489,
        -0.036210697,
        -1.2065282,
        -0.5500077,
        -2.1894362,
        -0.47072482,
        -1.8635142,
        -1.2402887,
        -1.7871234
      ],
      [
        -0.82178026,
        -1.3903593,
        -0.025547609,
        -0.82054365,
        -0.6886167,
        -1.2345747,
        -0.5350858,
        -1.0430822,
        -0.7984413,
        -0.8717332
      ],
      [
        -1.7474564,
        -2.126537,
        0.157046,
        -1.2088581,
        -0.6641706,
        -1.8212174,
        -0.52348363,
        -1.9494815,
        -0.73599374,
        -1.4926527
      ]
    ],
    [
      [
        0.22221805,
        3.2903476,
        0.33899355,
        3.2865531,
        4.0724926,
        3.310673,
        3.8578663,
        -0.4595488,
        0.5217413,
        0.021197112
      ],
      [
        2.5846455,
        -3.1109796,
        1.3470591,
        -3.082723,
        -4.9157753,
        -3.1615593,
        -4.3844113,
        3.9331172,
        1.3523968,
        3.2250133
      ],
      [
        -2.896703,
        -2.379064,
        -2.9235847,
        -2.2949429,
        -2.3742049,
        -2.4673264,
        -2.4919264,
        -2.0549638,
        -3.1242437,
        -2.6818333
      ]
    ]
  ],
  "EpochsTrained": 19900,
  "LearningRate": 0.001,
  "BatchSize": 32,
  "Loss": 0.010236789820802152,
  "Activation": 0,
  "DActivation": 1
}