{
  "structure": [
    4,
    5,
    5,
    3
  ],
  "values": [
    [
      0.69,
      0.31,
      0.51,
      0.22999999
    ],
    [
      0.51750493,
      0.5226553,
      0.52157897,
      0.5362037,
      0.516949
    ],
    [
      0.009967069,
      0.0007017038,
      0.0012055879,
      0.0005190997,
      0.00041734002
    ],
    [
      0.00012460428,
      0.024294091,
      0.9754455
    ]
  ],
  "biases": [
    [
      0,
      0,
      0,
      0
    ],
    [
      -1.7848555,
      -1.839564,
      -1.8913422,
      -1.4413023,
      -1.7440735
    ],
    [
      19.371288,
      1.7917982,
      1.5863794,
      1.864753,
      1.9336838
    ],
    [
      -8.996216,
      -3.8403318,
      3.855223
    ]
  ],
  "weights": [
    [
      [
        -5.202089,
        -5.13622,
        10.390256,
        7.554775
      ],
      [
        -5.402014,
        -5.4514303,
        10.791513,
        8.01725
      ],
      [
        -5.1563997,
        -5.31134,
        10.626134,
        7.664655
      ],
      [
        -2.8552496,
        -3.6572497,
        6.9758415,
        4.9242935
      ],
      [
        -4.7648287,
        -5.074684,
        9.843266,
        7.185933
      ]
    ],
    [
      [
        -10.249978,
        -10.93037,
        -10.410312,
        -4.9119887,
        -9.457233
      ],
      [
        -3.4255607,
        -3.640648,
        -3.670765,
        -3.0427325,
        -3.5427632
      ],
      [
        -3.2827535,
        -3.317056,
        -3.2721906,
        -2.8561218,
        -3.1633182
      ],
      [
        -3.6395426,
        -3.698946,
        -3.8511696,
        -3.2476065,
        -3.5996287
      ],
      [
        -3.8141906,
        -3.8179305,
        -3.9772434,
        -3.1845334,
        -3.798337
      ]
    ],
    [
      [
        -0.81237155,
        4.8686595,
        4.824095,
        5.149088,
        5.1867013
      ],
      [
        16.40292,
        -5.946988,
        -4.7583537,
        -6.2749753,
        -6.746293
      ],
      [
        -16.3104,
        -3.7234204,
        -4.1126747,
        -3.4943035,
        -3.2892542
      ]
    ]
  ],
  "EpochsTrained": 1783900,
  "Activation": 0,
  "DActivation": 1
}