{
  "structure": [
    4,
    10,
    10,
    3
  ],
  "values": [
    [
      0.55,
      0.24000001,
      0.37,
      0.1
    ],
    [
      0.49690646,
      0.51350164,
      0.49690646,
      0.51350176,
      0.5135019,
      0.5135016,
      0.51350147,
      0.51350176,
      0.49690646,
      0.49690646
    ],
    [
      0.4590747,
      0.45907405,
      0.45907432,
      0.529851,
      0.45907432,
      0.862954,
      0.110635094,
      0.17963243,
      0.45907432,
      0.45907432
    ],
    [
      0.10586719,
      0.7796271,
      0.100528665
    ]
  ],
  "biases": [
    [
      0,
      0,
      0,
      0
    ],
    [
      1.0004644,
      -0.6730349,
      1.0004644,
      -0.67299557,
      -0.6728697,
      -0.6730906,
      -0.6730806,
      -0.6729535,
      1.0004646,
      1.0004644
    ],
    [
      -0.018142676,
      -0.018142179,
      -0.018142562,
      0.0035906306,
      -0.018142454,
      0.41639906,
      -0.7826155,
      -0.34554604,
      -0.018142575,
      -0.018142438
    ],
    [
      -0.57348734,
      -0.094551116,
      -0.40724084
    ]
  ],
  "weights": [
    [
      [
        0.34856817,
        0.9824992,
        -3.2461634,
        -2.3927064
      ],
      [
        -0.10757836,
        -0.73970735,
        2.2117019,
        1.4542292
      ],
      [
        0.34856805,
        0.9824994,
        -3.2461634,
        -2.3927064
      ],
      [
        -0.10756307,
        -0.73966676,
        2.2115724,
        1.4541354
      ],
      [
        -0.107514046,
        -0.7395326,
        2.2111568,
        1.4538299
      ],
      [
        -0.10760033,
        -0.7397674,
        2.211887,
        1.4543631
      ],
      [
        -0.10759595,
        -0.7397555,
        2.2118511,
        1.4543376
      ],
      [
        -0.10754641,
        -0.73962194,
        2.2114336,
        1.454029
      ],
      [
        0.34856817,
        0.98249894,
        -3.2461634,
        -2.3927057
      ],
      [
        0.34856856,
        0.98249966,
        -3.2461643,
        -2.3927062
      ]
    ],
    [
      [
        0.43706813,
        -0.32933956,
        0.4370681,
        -0.3293213,
        -0.32926023,
        -0.32936695,
        -0.32936123,
        -0.32930037,
        0.4370682,
        0.43706822
      ],
      [
        0.43708178,
        -0.32934934,
        0.43708172,
        -0.32933083,
        -0.3292704,
        -0.32937625,
        -0.32937124,
        -0.3293102,
        0.4370817,
        0.43708184
      ],
      [
        0.43707454,
        -0.32934433,
        0.43707454,
        -0.3293262,
        -0.32926467,
        -0.32937133,
        -0.32936633,
        -0.32930472,
        0.43707457,
        0.43707454
      ],
      [
        -0.4669203,
        0.33887142,
        -0.4669203,
        0.3388517,
        0.3387878,
        0.3388999,
        0.33889437,
        0.33883,
        -0.4669203,
        -0.4669203
      ],
      [
        0.43707472,
        -0.32934442,
        0.43707478,
        -0.3293262,
        -0.32926524,
        -0.32937145,
        -0.32936662,
        -0.32930493,
        0.43707478,
        0.43707487
      ],
      [
        -1.564979,
        1.4717314,
        -1.564979,
        1.4716585,
        1.4714202,
        1.4718372,
        1.4718157,
        1.4715753,
        -1.5649791,
        -1.5649797
      ],
      [
        -3.3645248,
        1.7481502,
        -3.3645248,
        1.7480239,
        1.7476158,
        1.7483325,
        1.7482986,
        1.7478836,
        -3.3645248,
        -3.3645253
      ],
      [
        1.2557476,
        -1.1909713,
        1.2557476,
        -1.1909132,
        -1.1907194,
        -1.1910559,
        -1.1910392,
        -1.1908476,
        1.2557478,
        1.2557479
      ],
      [
        0.437075,
        -0.3293446,
        0.43707505,
        -0.32932633,
        -0.32926545,
        -0.32937154,
        -0.3293667,
        -0.32930505,
        0.437075,
        0.4370751
      ],
      [
        0.43707502,
        -0.32934445,
        0.43707502,
        -0.32932642,
        -0.32926542,
        -0.32937193,
        -0.32936683,
        -0.329305,
        0.43707508,
        0.43707508
      ]
    ],
    [
      [
        0.5921387,
        0.5921683,
        0.5921522,
        -1.1943239,
        0.5921526,
        -3.354772,
        -0.7551427,
        2.3388762,
        0.59215313,
        0.5921532
      ],
      [
        -0.22003317,
        -0.22003968,
        -0.22003636,
        0.08527865,
        -0.22003657,
        3.5170684,
        -5.7670712,
        -2.6614819,
        -0.22003691,
        -0.22003679
      ],
      [
        -1.0200286,
        -1.0200564,
        -1.0200418,
        0.6908847,
        -1.0200427,
        0.39008778,
        4.553781,
        -1.0074629,
        -1.0200429,
        -1.0200431
      ]
    ]
  ],
  "EpochsTrained": 124600,
  "LearningRate": 0.1,
  "BatchSize": 16,
  "Activation": 0,
  "DActivation": 1
}